-0.052142
-0.069006
0.018469
-0.023912
-0.144053
-0.055045
0.102453
-0.022019
-0.075064
0.194787
0.008542
-0.094528
0.038236
-0.063411
-0.100947
0.062717
-0.111026
0.127615
-0.156239
-0.211708
-0.057282
-0.050515
0.001690
-0.069306
0.048285
-0.114691
-0.034644
-0.008244
0.076860
-0.073310
0.140884
0.015463
0.002988
-0.002216
0.016858
-0.061073
-0.070349
-0.078785
0.011445
-0.158798
0.268910
0.081740
0.094287
-0.089124
0.045543
0.052918
0.083879
-0.012821
-0.039221
-0.005872
0.153655
0.044216
0.003699
0.010890
-0.064913
-0.120604
-0.063486
-0.127347
0.014029
0.046416
-0.059533
-0.043549
0.156261
0.090727
0.199577
0.174012
0.074662
-0.014159
0.051823
0.065724
0.112237
-0.028064
0.037731
0.008647
-0.141014
-0.009055
-0.170710
-0.157356
0.012706
-0.155018
0.000529
-0.086260
0.103938
0.014293
-0.011206
-0.051694
0.102102
-0.035403
-0.115229
0.061444
-0.062034
-0.139087
0.067571
0.057249
0.064163
0.073130
0.174483
0.139961
0.034003
-0.053083
0.049767
0.087710
0.020816
0.015653
0.085116
-0.125151
0.153067
-0.122627
0.092374
0.273265
-0.118475
-0.173459
0.169560
-0.144785
0.160144
-0.036055
0.094731
0.015788
0.077874
-0.204642
0.191520
0.077533
0.083979
-0.215720
0.041453
-0.075476
0.039218
-0.010074
-0.082279
-0.260765
0.021795
-0.079256
0.027531
0.068586
0.044780
-0.105035
-0.054947
0.050366
-0.142083
0.008981
0.016979
0.108352
0.084611
-0.115283
-0.009375
0.026238
-0.241054
0.086887
-0.053694
-0.061078
-0.110372
-0.063189
0.002930
-0.147759
0.040834
0.030666
0.019377
-0.005838
-0.000599
0.248772
0.125038
-0.089855
0.086824
0.010610
-0.059240
-0.083568
-0.059842
0.094297
-0.232661
0.081716
0.108328
0.163536
-0.122041
-0.042392
-0.065578
-0.070216
0.049252
0.011751
0.022440
-0.185368
-0.083567
0.079997
0.054510
0.044228
-0.069832
-0.117360
-0.011385
0.014507
-0.077270
-0.026526
-0.015668
-0.021314
-0.129200
0.040995
-0.212036
-0.191109
-0.055598
0.164972
0.004504
-0.066363
-0.015978
0.144497
-0.068622
0.132634
-0.056603
0.102702
-0.224884
-0.166078
-0.049051
-0.051935
-0.047156
-0.160510
0.179728
0.049357
0.050527
0.038273
-0.064889
0.100121
-0.171734
-0.030502
0.157962
0.104536
-0.124657
-0.174068
0.143352
0.087963
0.002227
-0.144708
-0.074578
0.079486
-0.131097
0.009745
-0.123400
-0.080706
-0.050037
-0.150557
-0.034371
0.029312
-0.091306
0.205222
0.002017
0.190080
-0.148738
0.001981
0.261046
0.044259
-0.128086
-0.026805
0.003916
-0.000418
0.008799
-0.019735
-0.035093
-0.094398
0.236838
0.017930
0.093565
-0.167696
0.049771
0.038367
0.058894
-0.226580
0.038027
0.014289
-0.188990
-0.075975
0.106724
-0.150722
0.066324
0.111105
0.216457
-0.085824
-0.051971
0.060698
-0.049987
0.158770
0.137480
0.069359
0.002192
-0.031897
0.057980
-0.017583
0.020407
0.043416
-0.096652
-0.192969
0.115081
-0.024239
0.077389
-0.032664
-0.180402
0.126108
0.126947
-0.164766
-0.042276
0.053811
0.163751
-0.061164
-0.116970
-0.010076
0.145899
-0.101360
0.094257
-0.010813
-0.063012
-0.101452
0.181880
-0.173370
-0.113901
0.174165
0.049138
-0.012240
0.005948
-0.018183
-0.206040
-0.022805
-0.006853
0.078818
0.034214
-0.168346
0.014279
-0.028482
-0.091972
-0.228395
0.124563
0.065930
0.090520
-0.145450
0.104426
0.123128
-0.094791
0.063890
0.148954
0.006747
-0.192430
-0.105602
-0.104586
0.029779
-0.114501
-0.037060
0.009237
-0.120908
0.138116
0.024654
-0.054101
-0.047086
-0.048393
0.162367
0.031923
0.233674
-0.038977
-0.005410
-0.021093
-0.080975
0.281223
-0.162899
0.100026
-0.079566
0.141906
-0.042498
-0.042133
-0.218966
0.101248
-0.044873
0.035258
0.040296
-0.030440
-0.012625
0.076747
-0.100617
0.059991
0.019541
-0.114323
-0.053326
-0.050855
-0.100653
0.008310
-0.187642
-0.043418
0.027343
0.173442
0.029124
0.013587
0.053193
-0.254176
-0.107895
0.008298
0.132650
0.090263
-0.071304
-0.166911
-0.068933
0.035268
-0.180702
-0.187899
-0.098918
-0.058007
0.211056
0.055313
0.089572
0.071075
-0.305859
-0.061294
0.155446
0.000564
-0.091016
-0.097253
-0.098238
-0.007858
0.061547
0.157403
-0.091851
-0.021588
-0.018096
-0.032999
0.068173
-0.070180
-0.141667
0.215692
-0.007703
0.171129
0.162208
-0.183672
-0.197285
-0.058741
-0.025931
0.089511
-0.133441
0.047205
0.044969
0.073741
-0.020624
-0.027872
-0.097923
0.315836
0.111828
-0.223926
-0.039818
-0.218159
0.028131
-0.121088
0.026447
-0.017052
0.193137
-0.073806
-0.066554
0.072866
-0.141491
0.216657
0.118917
0.126598
-0.040229
-0.083619
-0.043926
0.020004
0.097348
0.038044
0.100158
0.188817
0.038500
-0.034990
0.012906
0.069198
0.121135
0.080095
-0.135381
-0.051566
0.018279
-0.171748
0.236675
-0.070133
0.007745
0.021433
-0.197181
0.138073
-0.073500
-0.005390
0.096703
0.228704
0.186578
0.020821
0.038015
-0.004128
-0.069521
0.016037
0.071147
-0.155685
0.051957
-0.045713
-0.080287
-0.004550
0.123955
0.010442
0.155092
-0.117092
0.003823
-0.055238
-0.088267
0.048003
0.124172
0.143239
-0.109691
-0.046409
-0.017348
-0.161432
-0.103379
0.085434
0.011815
-0.122661
0.032338
-0.023466
-0.101838
-0.066204
0.090958
-0.073526
0.034104
0.043230
-0.199259
-0.009523
-0.127123
-0.206493
0.034267
-0.073788
0.014611
-0.027624
-0.039916
0.006997
0.234002
0.104727
0.060589
-0.071165
0.082899
-0.017743
-0.054509
0.056374
-0.020095
-0.087048
-0.206000
0.096303
0.161633
-0.034422
0.026299
0.069665
-0.120276
0.134803
0.008636
0.056486
-0.012759
-0.000480
0.035587
0.180812
-0.029291
-0.257573
-0.133536
0.063823
-0.049721
0.094126
0.171863
-0.001300
-0.049622
-0.049224
-0.087825
-0.041701
0.169124
0.041415
0.034539
0.105212
-0.230817
0.173146
-0.014374
0.147743
-0.008208
0.000758
-0.094454
-0.137104
-0.086706
-0.011425
-0.039766
0.043039
0.030692
0.112011
-0.058983
0.134026
0.092441
-0.002100
0.024471
0.206180
0.068205
-0.062231
-0.107065
0.113485
-0.272771
-0.131961
-0.137609
-0.074096
-0.056819
0.097720
0.136334
0.009684
-0.090728
-0.027156
-0.049106
-0.090976
0.070244
0.076694
0.011553
0.044822
0.013661
-0.134614
-0.149009
0.199912
0.019871
0.041066
-0.175528
-0.161434
-0.000054
0.086946
0.014440
-0.186330
-0.210922
0.013681
-0.203081
-0.026969
-0.079599
-0.059891
-0.288146
0.143349
0.019697
0.103616
0.031629
0.103474
-0.131039
-0.117095
-0.022691
-0.027184
0.198703
-0.099539
-0.047027
-0.105683
0.157388
0.098694
-0.059551
0.271548
-0.159931
-0.003344
0.149822
-0.177794
-0.024367
0.123094
0.062462
0.044567
0.110511
0.087851
-0.163102
-0.138877
-0.113346
0.043654
-0.011486
0.061202
0.194420
0.038503
0.092316
0.064596
0.023242
0.004137
-0.049904
0.073931
0.023120
-0.158231
-0.065335
0.064500
-0.063011
0.123251
0.005465
0.118196
-0.282994
-0.021676
-0.096147
0.056996
-0.079271
0.046457
0.113180
-0.060572
-0.112994
-0.036645
0.075393
0.059611
-0.015085
0.070652
0.176455
-0.014174
-0.023303
0.072380
0.247422
0.099849
0.070408
-0.030527
-0.115008
0.117193
0.019670
-0.028073
0.110144
0.164410
0.118658
-0.061239
-0.115554
-0.010042
0.190744
-0.119976
0.094151
0.148594
-0.062394
-0.201754
-0.037590
-0.057616
-0.069004
-0.021832
0.155066
0.065647
-0.002681
-0.006450
-0.098566
-0.097942
0.079527
0.109302
-0.166089
-0.233159
-0.141035
-0.066318
-0.189546
-0.108566
-0.052174
-0.110061
-0.181065
-0.114095
-0.116065
0.000592
0.082541
-0.143164
0.142246
0.070207
0.230341
0.088049
-0.032773
0.033064
-0.088974
-0.010388
0.005377
0.084902
-0.028814
0.158535
0.077387
0.061455
-0.056080
-0.033519
0.180055
0.098164
0.011881
0.294316
0.065272
-0.077170
-0.227749
-0.050993
0.108031
0.104847
-0.043535
0.019671
0.040872
-0.019143
-0.035203
0.055634
-0.076140
-0.040224
0.066966
0.136461
-0.204375
0.091378
-0.213050
0.207930
0.014984
-0.028231
-0.049899
-0.039004
0.007954
-0.220505
0.018001
0.062232
0.120839
0.104897
0.053573
0.014034
-0.121077
-0.089239
-0.133731
-0.287469
0.000401
0.034870
0.006839
-0.200262
-0.041836
-0.078247
0.084694
-0.105552
-0.050264
-0.046987
-0.135201
-0.008644
-0.155878
0.110928
0.087282
0.112005
0.133533
0.025937
0.199554
-0.065094
0.207946
0.046268
0.058400
0.026589
-0.190423
-0.030649
0.092524
0.057051
-0.138637
0.090385
0.025727
-0.154233
0.061473
-0.052507
0.045311
0.091843
0.029681
-0.042916
-0.018987
-0.010508
-0.048220
0.053687
-0.100376
0.052746
0.039524
-0.075136
-0.073839
-0.003548
-0.117586
-0.014060
-0.040277
-0.006708
-0.116050
-0.155553
-0.135062
-0.108061
0.096220
0.144799
0.016571
-0.007523
-0.150044
-0.064976
0.006081
0.159592
-0.096628
0.065020
0.084683
0.015001
-0.050345
0.031426
0.054429
-0.151417
0.050871
-0.030556
-0.145349
0.023709
-0.053223
0.014601
-0.108324
-0.031450
-0.139561
0.066652
0.112202
-0.152589
-0.010681
-0.119094
-0.065288
0.042794
0.126540
0.113413
0.224338
-0.071542
0.109816
0.097591
-0.088857
0.034589
0.040623
-0.003091
0.076724
0.017671
-0.026297
-0.073297
0.027057
0.074293
0.003648
-0.229015
0.000559
-0.104937
-0.028398
0.099341
0.057515
-0.000663
0.063098
0.083259
-0.166681
0.092553
-0.027656
0.124455
0.045253
-0.012575
0.006686
-0.014143
0.112310
0.167434
-0.033854
-0.021043
0.032140
-0.197936
0.102156
0.157671
0.163357
0.038241
-0.092103
-0.094136
0.110514
0.147135
-0.024113
-0.011414
-0.011514
0.011406
0.059338
0.008246
0.142570
0.097222
0.055028
-0.092477
-0.014658
0.088473
0.002311
0.063769
-0.051193
-0.133351
-0.000225
0.015120
-0.091787
-0.025709
-0.039884
-0.094646
-0.005756
-0.151851
0.092809
0.014237
0.148487
-0.037093
0.109383
0.060661
0.173623
0.128274
0.163337
-0.041509
0.061131
0.009469
0.089829
0.060605
-0.104582
-0.007864
0.008396
0.179303
0.124606
0.016300
0.038359
0.009121
-0.080716
-0.105525
-0.010479
-0.165093
0.111840
0.009375
0.075093
-0.002336
0.153961
-0.070505
-0.163466
-0.106012
-0.059486
0.175647
0.064746
-0.006290
0.208671
0.023485
0.004581
0.063204
0.012932
-0.100444
-0.005476
-0.254433
-0.070308
0.119985
-0.146723
-0.032081
0.100624
0.093486
-0.156039
-0.135510
0.098304
-0.023495
-0.024173
0.054636
0.066862
-0.015351
0.192900
0.105914
0.066713
0.082108
-0.098521
-0.045173
-0.160162
-0.095392
-0.036743
-0.013920
0.052923
-0.079253
0.042238
0.051845
0.271237
0.065641
0.052278
0.022105
0.120811
0.073190
0.079188
-0.002614
0.003246
0.031725
-0.063048
0.097612
-0.067917
-0.168830
-0.027046
-0.142194
0.133862
-0.060603
0.063617
0.000154
0.101519
0.017012
-0.038057
-0.006107
0.017549
0.041784
-0.124839
-0.069810
-0.096914
-0.122859
-0.170715
-0.103722
0.062791
-0.000389
-0.180698
-0.188405
-0.073560
0.039111
0.168450
0.065504
0.165207
0.205829
0.064327
-0.137534
0.145665
0.301558
-0.094722
0.157277
-0.062595
-0.080727
0.052512
-0.074064
0.043310
0.025193
0.042670
-0.038333
0.065491
-0.005528
-0.159507
0.075022
0.111455
-0.097139
-0.125350
0.176349
-0.032791
0.298698
-0.155244
0.110981
0.145191
-0.136008
-0.048977
0.041887
-0.020886
0.009622
-0.207249
-0.132651
0.083511
-0.078042
0.240215
0.067099
-0.103262
-0.005177
-0.022750
-0.028837
0.237972
0.037541
0.208372
-0.089117
-0.086271
0.013595
0.027561
-0.161131
-0.021330
-0.257752
0.134825
-0.165287
0.154911
-0.138170
-0.211433
-0.114283
-0.250386
0.089545
0.101878
0.228776
0.052949
0.036099
0.066092
0.078900
-0.015402
0.282168
0.229818
-0.050489
-0.172176
-0.207357
0.003935
0.024092
-0.046886
0.204287
-0.068417
-0.089084
0.033375
0.060721
-0.124925
0.147612
-0.193266
-0.104783
-0.133577
0.147488
-0.066845
-0.073429
-0.132060
-0.051028
-0.083653
0.123861
0.055383
-0.006445
0.113302
0.145282
0.150709
-0.072057
-0.076443
0.056665
-0.055116
0.243420
0.111994
-0.079294
-0.172874
0.178043
-0.210663
0.110350
0.058480
0.071547
0.236424
0.074910
-0.059427
-0.081251
-0.144403
-0.208443
-0.043332
-0.025392
-0.197119
0.014481
-0.151260
0.061018
-0.196578
-0.119218
-0.005719
0.062109
-0.117114
-0.200243
0.019264
0.090248
0.099928
0.032589
-0.005853
0.166368
0.013317
0.044703
-0.003021
-0.030191
-0.250923
0.047982
-0.021536
-0.135479
0.158655
0.098616
-0.109793
-0.037931
0.090205
0.219429
0.250215
0.167580
0.228077
0.289209
0.111377
0.265695
0.211266
0.344785
-0.179812
0.065746
-0.317908
-0.176949
-0.083071
-0.068755
0.088656
-0.013704
-0.109618
-0.002448
0.210841
0.110012
0.063557
-0.116978
0.004158
0.022598
0.169731
0.379256
-0.186481
-0.252754
-0.224664
0.047891
0.091927
-0.183428
0.070850
0.106541
0.056538
0.032136
0.072582
0.005934
-0.033421
-0.162927
-0.147648
0.071163
0.247210
-0.113623
-0.084271
0.015268
-0.204055
0.149220
0.163804
0.042841
0.035922
0.234956
-0.120012
-0.151960
-0.031443
0.072581
0.128245
0.094160
-0.185231
0.073525
-0.083540
-0.076509
-0.138080
-0.153806
-0.187306
0.027347
-0.011503
-0.111113
0.047344
0.183442
-0.097708
0.088340
-0.118196
-0.071998
-0.058795
-0.217677
0.117013
0.036367
0.071848
0.059441
-0.226567
-0.011217
0.045514
-0.141800
0.039087
-0.240939
-0.003843
-0.128123
0.003531
-0.145492
0.057920
-0.107539
0.065339
0.070369
-0.063480
0.197495
-0.073954
0.196484
0.197312
0.171238
0.139999
0.141683
-0.063119
0.172618
0.012827
0.123841
0.006548
-0.034988
-0.137813
-0.085408
-0.000113
-0.021034
0.048398
0.109051
0.192097
0.198091
-0.046498
-0.066762
-0.113136
-0.025942
0.124575
-0.002848
0.018793
0.129016
0.162194
0.034138
0.233172
0.002022
0.084923
-0.012279
0.201216
0.200047
0.149545
-0.034223
-0.075216
0.122391
-0.238675
-0.068393
0.098458
0.071020
0.069902
-0.080188
0.110183
-0.213537
0.194824
-0.086651
0.030445
0.080032
0.053545
0.066510
0.093630
0.089903
0.035444
-0.006749
0.076737
-0.080519
-0.039677
0.230611
-0.108941
-0.087281
-0.109891
0.036798
0.055733
-0.086763
-0.164247
-0.089404
-0.142603
0.080283
0.098521
0.021216
-0.159499
0.215110
0.103307
0.085421
0.365462
0.143652
0.177220
0.105623
0.051516
-0.105120
-0.057253
-0.138669
-0.030638
0.144192
-0.078158
0.148621
-0.006352
-0.100661
-0.056807
0.126132
0.060866
0.148562
-0.071466
0.026792
0.020883
-0.110099
-0.220026
-0.251272
0.018369
-0.005356
0.029558
-0.118966
-0.166613
0.090865
0.063726
-0.051375
-0.079245
-0.050882
-0.208320
0.104610
-0.004730
0.060778
-0.223909
0.057466
-0.024409
-0.139440
0.032482
-0.194536
-0.015482
-0.031074
-0.041513
0.168025
0.077195
0.188125
0.138506
0.088761
0.189183
-0.040092
-0.339506
0.060464
-0.013815
0.047088
-0.108446
0.018678
0.001746
-0.046206
-0.136607
-0.206284
-0.058106
0.114190
-0.045148
0.204207
-0.076813
0.083866
0.018677
0.074786
0.021103
0.189192
-0.099042
0.001442
-0.166500
-0.126682
0.025203
-0.041882
0.021236
0.214275
-0.104379
-0.122945
0.122657
-0.047763
-0.152316
0.116525
0.175255
-0.084098
-0.029642
0.129414
-0.222729
-0.110811
-0.156888
-0.099720
-0.066135
-0.200420
0.121404
-0.116773
-0.257440
0.206350
0.174036
0.128424
0.168598
-0.067726
0.137053
-0.204044
0.359297
0.030435
0.179478
0.134370
0.136666
-0.037286
-0.155116
0.076150
0.059832
0.092086
0.016786
0.081119
0.044447
0.081218
-0.098107
0.087168
0.062295
0.134166
-0.094486
0.258762
-0.094816
-0.147606
0.011730
-0.221587
-0.093409
-0.197341
-0.188423
-0.136599
-0.002629
-0.101177
0.083582
0.118411
0.114222
0.113983
0.271085
0.178979
0.093987
0.059634
0.159214
-0.054022
-0.171073
-0.165682
0.134106
0.157108
-0.189823
-0.162046
-0.143875
0.069377
0.078172
0.076489
0.133074
0.050828
-0.092279
0.076824
0.074664
0.151140
-0.011321
0.066985
0.153726
0.016580
-0.003102
-0.031965
0.095322
-0.130361
-0.026403
-0.091320
-0.011335
-0.049876
0.146449
0.003331
0.043682
0.092742
0.192069
0.027093
-0.062084
-0.028235
-0.048409
0.006521
0.001358
0.075274
-0.142026
-0.275032
0.100096
0.043935
0.028508
0.028304
0.009298
-0.039682
-0.029289
-0.016157
0.088868
0.058863
0.065865
-0.046295
0.159824
0.197838
-0.016885
0.021299
0.017239
-0.105079
0.099532
0.016447
0.071274
0.014790
0.072974
-0.025859
0.224983
0.026352
0.066802
-0.014194
-0.062258
-0.124588
-0.095693
0.023815
-0.134504
0.002645
0.114761
-0.069016
-0.000158
-0.008768
-0.080113
-0.118120
0.095534
0.071603
0.190316
0.116721
0.046391
0.130608
-0.166262
0.069015
0.109941
0.089374
-0.081508
-0.234647
-0.002772
-0.119281
-0.025165
0.143428
0.051778
-0.021451
0.172851
-0.002786
0.185001
-0.111782
-0.082379
-0.131358
-0.001624
-0.030854
-0.034550
-0.131405
0.134751
0.012650
-0.033963
0.031839
-0.097963
-0.075614
-0.054409
-0.144851
-0.121930
-0.172223
-0.009134
0.112004
-0.007751
-0.085501
0.270810
-0.057871
-0.059485
-0.115292
-0.109622
0.154723
-0.075212
0.025572
0.083325
0.074492
0.112579
0.114511
0.070117
-0.137600
0.038882
-0.106824
-0.120499
-0.024411
-0.010061
-0.012405
-0.234072
0.195962
-0.077901
-0.141605
-0.118908
-0.045593
0.217437
0.011254
-0.141851
0.045106
0.227966
0.202739
0.053930
-0.192781
-0.344397
-0.110077
-0.012321
0.335241
0.280313
0.029696
0.115690
0.194429
0.340501
0.022172
-0.089484
-0.168733
-0.315066
-0.067402
-0.104748
0.071973
0.241286
0.133648
-0.057231
-0.062266
-0.188033
0.055010
0.197755
0.228169
0.271494
0.057996
0.261650
0.258773
0.011498
0.348269
0.134090
0.082904
-0.024349
0.101781
-0.250088
-0.003617
0.168599
0.275204
-0.093962
-0.051211
0.132609
-0.050722
0.007728
-0.087468
-0.100472
-0.059406
-0.041815
0.228734
0.265936
-0.041278
-0.137445
0.138782
-0.017096
0.032216
0.096168
0.402591
-0.014615
-0.013370
-0.054337
-0.025506
-0.023093
0.061321
0.110674
-0.002470
-0.065648
0.045249
0.202293
0.342407
0.276389
-0.034320
-0.070710
0.141293
0.098330
0.118963
-0.233208
-0.155989
-0.095261
0.066498
0.224296
0.032170
0.138319
0.037217
-0.322268
0.044770
0.068662
0.023659
-0.027322
-0.054673
0.357883
0.368232
0.088925
0.106546
-0.235538
0.051082
0.136260
0.042862
0.070797
0.000171
-0.039068
-0.253099
-0.251419
0.079221
0.004546
0.075655
-0.034928
-0.099157
0.025829
0.080278
0.098812
0.223158
0.033821
-0.233012
-0.015020
-0.134743
0.010442
-0.070712
-0.083730
-0.042163
-0.108892
0.257331
0.036120
0.079122
0.038457
-0.099978
-0.072170
-0.005595
0.065188
0.052258
-0.121415
0.013159
-0.061665
-0.070571
0.029430
-0.115546
-0.059776
-0.010730
0.019804
-0.080838
0.096288
0.101308
0.003283
-0.054748
0.008669
0.073112
-0.049218
0.135902
-0.059647
0.036186
-0.094857
-0.198227
0.127211
0.086661
0.217361
0.075367
-0.058402
0.162234
0.026225
0.155410
0.063726
-0.080824
-0.028224
0.044203
0.096640
0.034848
0.018833
-0.044126
0.198274
0.225291
0.217563
-0.220442
-0.055520
0.062907
-0.123062
-0.129020
0.117108
-0.088460
0.008088
0.049029
0.143260
0.119825
-0.129757
-0.185485
-0.091822
-0.026501
-0.042010
-0.160384
-0.058528
0.159729
0.171127
0.007087
-0.135026
-0.075896
-0.097398
-0.021309
0.101371
-0.040826
0.130208
-0.170459
0.190216
-0.057602
-0.115303
-0.018682
0.050782
0.173642
-0.011933
-0.083053
-0.005124
-0.152969
-0.251251
-0.110944
-0.003605
0.005149
-0.135784
0.133324
-0.055006
-0.351518
-0.075756
0.242642
0.175182
-0.113172
0.072763
-0.158170
0.104095
0.097829
0.177848
0.260735
0.091750
0.288685
-0.119076
-0.071012
0.077625
0.101790
-0.211831
0.007285
-0.061947
-0.048457
0.082664
0.323863
0.135083
-0.083913
0.095558
-0.188767
0.139185
-0.066149
0.099060
-0.091725
0.074283
0.161878
-0.053769
0.225697
-0.034213
-0.110953
-0.439714
-0.002518
-0.042137
0.212118
-0.161279
0.028074
0.023980
-0.042047
-0.256568
0.199621
0.100753
-0.057143
-0.149170
-0.031919
-0.025673
-0.043027
-0.162746
0.268605
0.115484
0.101122
0.082157
0.232865
-0.155167
-0.010761
0.020186
-0.042454
-0.046642
0.197864
-0.108212
-0.090146
-0.049798
0.083590
-0.107535
-0.111722
-0.124601
-0.152025
-0.232954
-0.003458
0.243978
0.018086
-0.108309
-0.120865
0.070917
-0.149774
-0.040891
-0.059427
0.107502
0.011159
-0.161852
-0.159170
-0.119375
-0.038990
-0.019267
0.152292
-0.085623
-0.119701
-0.139597
0.011670
0.060661
-0.152377
-0.062051
-0.191185
-0.083815
0.083681
0.138796
0.106151
0.128142
0.192265
0.024493
0.040859
0.030658
-0.079029
-0.087431
-0.003484
0.003033
-0.028260
-0.046268
-0.161927
0.096571
-0.034839
-0.067913
-0.032230
0.013148
-0.019027
-0.080787
0.037808
-0.065369
-0.091424
0.023406
0.148165
0.221350
0.133167
-0.007867
0.016080
-0.069081
0.041814
0.182470
-0.011008
-0.117638
-0.070610
-0.172688
-0.029569
-0.005932
-0.063910
0.110811
0.126428
0.303603
0.069608
0.093805
0.009372
0.142625
-0.162983
-0.090924
-0.172125
0.069640
0.042521
0.032246
-0.043407
-0.022287
0.051812
0.091635
0.087467
0.188542
0.146386
0.108573
0.087252
0.108334
-0.075259
0.016782
-0.130785
0.128543
0.042727
-0.033468
-0.181946
-0.182331
-0.081674
0.089687
-0.076578
-0.012235
0.121305
0.074714
-0.262003
-0.074200
0.082420
0.236700
-0.058500
0.075954
-0.121298
0.188397
-0.079256
0.052082
0.075506
-0.110970
-0.014831
-0.010245
-0.059863
0.264920
0.144997
-0.074179
-0.205282
0.112795
0.007395
-0.004578
-0.112439
0.072852
-0.024046
-0.087979
0.252700
-0.055717
-0.096127
0.066433
-0.138743
0.062995
0.161756
0.068523
0.220560
0.062153
0.099790
0.033441
0.120439
0.168979
0.078370
0.047692
-0.128166
-0.037562
0.014922
-0.174793
0.089411
0.120317
-0.063947
0.014365
-0.048127
0.050695
-0.092201
0.209675
0.090453
0.041479
0.221015
0.052027
0.135461
0.009087
-0.168877
0.069702
-0.013393
-0.136137
0.116273
-0.068688
-0.243075
-0.001738
-0.037257
0.075734
-0.006790
-0.138217
0.011157
-0.077226
0.048319
-0.121652
-0.040500
0.157160
-0.022868
0.131410
0.000945
-0.023612
-0.098864
-0.099494
0.191015
0.136846
0.090632
-0.098018
-0.086593
-0.007578
-0.038344
0.060093
-0.047701
0.155255
-0.053039
0.032618
0.058215
-0.143105
0.281363
0.020690
0.169547
-0.074621
-0.040530
-0.026919
-0.226041
-0.116321
-0.149038
0.145744
0.120312
-0.037360
0.089009
0.150197
-0.000894
-0.163659
0.161708
0.195619
-0.125949
0.007512
0.051285
-0.003190
-0.061165
0.144496
-0.048478
0.087102
-0.225979
-0.004420
-0.181682
0.165660
-0.035182
-0.081131
-0.129208
0.056950
0.199437
0.066791
0.015106
-0.160527
-0.116574
-0.233156
-0.128166
-0.118271
-0.000821
-0.240540
0.121895
-0.283074
-0.060724
-0.009970
0.187054
-0.029476
0.222930
-0.050748
-0.135330
-0.131478
-0.144440
-0.092688
0.004353
0.161032
0.160806
0.062397
-0.035269
-0.173581
-0.193261
-0.061113
0.095481
-0.089043
0.028938
-0.125481
0.110507
-0.061996
0.018840
0.029741
0.100812
0.130876
0.041150
0.037220
0.145647
-0.044777
-0.042640
0.110187
-0.189328
-0.170804
0.026150
-0.249157
-0.229331
-0.045319
-0.076110
0.242709
0.243933
0.218371
0.218358
0.236649
0.128511
0.065713
0.088415
-0.151296
0.094803
-0.073722
-0.019574
-0.154651
-0.011716
-0.037351
-0.124596
-0.199438
-0.181339
0.048806
0.190055
0.063741
0.127937
0.198461
0.144678
0.086541
-0.130401
-0.276638
-0.204182
0.079307
-0.068476
-0.244292
-0.278506
-0.278911
0.282291
0.205082
-0.023889
-0.176357
0.008017
-0.103727
-0.084487
-0.008723
-0.002741
0.165536
0.154131
0.094882
-0.012539
-0.179112
-0.155626
-0.222558
0.087708
-0.120433
0.270322
0.160943
0.187750
0.108669
-0.138890
0.072008
0.045677
0.139600
-0.098041
-0.127307
-0.041260
-0.034514
-0.316346
0.085945
0.033841
-0.168694
-0.164332
-0.194126
-0.148681
-0.107753
0.206125
0.030522
-0.142795
-0.124032
0.007559
-0.015214
0.166256
-0.055441
0.218603
0.069119
0.070979
-0.035971
0.132248
-0.176588
0.103399
-0.026867
-0.246599
0.154685
0.070928
-0.147347
0.071740
0.152634
0.197923
-0.126951
-0.082879
-0.139581
0.202209
0.017394
0.127591
-0.113843
0.054746
0.010321
0.099685
0.103261
0.146988
-0.046219
0.062857
0.088936
0.080327
0.014987
-0.232693
-0.166913
-0.059210
0.100523
0.063036
0.083764
-0.095045
-0.071584
-0.017127
0.177257
-0.074451
-0.270676
0.127650
0.027321
0.010815
-0.022542
0.148317
0.095106
-0.052402
0.108546
-0.147557
-0.010527
-0.082228
-0.035397
-0.009790
0.061276
-0.055616
-0.259187
0.044017
0.006548
0.044060
0.113307
0.148434
0.042911
-0.034072
0.053067
-0.109215
0.187469
-0.167446
0.098603
0.106365
0.012654
0.046698
-0.010645
-0.035666
-0.066957
-0.015549
0.003446
0.042848
0.091294
0.069051
0.133361
0.057541
0.162557
0.017657
0.126716
-0.107814
0.106354
0.201974
-0.017953
0.090216
0.283681
0.165140
0.106465
0.085173
-0.144807
0.071975
0.127933
0.064086
0.052486
0.151573
-0.227535
-0.130203
0.057100
-0.092377
-0.035106
0.152905
0.167568
0.209526
-0.009248
-0.035471
0.085036
0.050765
0.093579
0.012027
0.003815
0.102662
-0.102756
0.001180
-0.209317
-0.157378
-0.001966
0.083791
-0.016598
-0.151976
-0.177130
-0.108031
0.036570
0.083841
-0.070981
0.088771
-0.091051
-0.086616
0.127137
0.181944
-0.120835
-0.094102
0.006889
-0.105775
0.019026
-0.118728
0.064891
0.009317
-0.203327
0.102060
-0.118325
0.081384
0.027341
0.232457
-0.113076
-0.022614
0.018762
0.226922
0.032207
-0.083478
0.012426
0.114369
-0.014693
-0.325127
-0.104781
-0.030794
0.081407
0.150020
0.000824
0.062793
0.014334
0.089263
0.073969
0.077533
-0.070688
0.126451
-0.026933
0.145977
-0.016857
-0.066691
0.081338
-0.210951
-0.130097
0.009223
0.016441
0.017751
-0.248645
0.004172
0.156544
0.047883
0.027959
0.086903
0.003815
0.075199
-0.140903
-0.280697
-0.183220
-0.056593
-0.085383
-0.042305
-0.049149
0.041853
-0.073292
0.075991
0.281553
-0.030681
0.026881
-0.002982
0.114233
0.189046
0.278068
0.222067
0.048316
0.122437
-0.028652
0.021254
-0.033722
-0.008134
0.141318
0.097428
0.133498
0.112489
0.065423
0.027733
0.118783
0.134591
-0.066451
0.023964
-0.149300
-0.070563
-0.210630
-0.070672
0.137534
-0.192094
0.032920
-0.005714
-0.043254
-0.200974
-0.187208
0.084839
-0.028102
0.183491
0.169446
0.179510
-0.103479
0.159158
0.073438
-0.021751
-0.138170
-0.257857
-0.140221
0.102506
0.064524
-0.148979
-0.127949
-0.029866
0.102401
0.300384
-0.142156
0.279344
0.100787
-0.042533
0.038702
0.115514
-0.009914
0.134742
0.019297
-0.036646
-0.104679
-0.046238
-0.104857
-0.225360
-0.027007
-0.158713
0.046669
0.045946
0.218650
0.023310
-0.112753
-0.103420
0.230561
-0.045399
0.073405
-0.173656
0.093456
-0.019564
-0.258042
0.057821
0.025035
0.155908
0.011788
-0.055842
-0.108164
0.008536
0.120274
0.014182
0.012108
0.068983
0.161559
0.116118
-0.024518
0.116872
-0.028052
-0.130968
0.047000
-0.003603
-0.145760
-0.002484
0.172027
-0.024741
0.030228
0.084257
0.161633
-0.127111
0.088375
0.009264
0.057604
-0.013410
0.077183
0.011550
0.037954
0.015365
0.179396
0.090870
-0.118316
-0.036463
-0.069585
-0.136246
-0.018530
0.047614
0.022821
-0.025203
-0.049675
-0.031792
0.087559
-0.057052
0.110255
0.054654
0.139904
-0.211267
0.071908
-0.056903
-0.035957
0.179593
0.165081
-0.087746
-0.030155
0.142150
-0.057416
0.041675
0.121268
-0.042324
-0.092441
-0.023019
0.024918
0.045357
-0.051485
-0.108980
-0.028973
0.002499
0.060137
-0.047590
0.035131
0.093976
-0.191464
-0.026103
0.100322
-0.068978
0.010907
0.076030
0.000500
-0.081739
0.088318
-0.005818
0.088062
0.166135
-0.003593
0.047363
-0.073046
-0.230897
-0.144769
0.145727
0.114699
-0.052382
-0.147066
-0.030036
-0.055607
0.008699
0.123781
0.171212
-0.108751
-0.163458
0.176419
0.094592
-0.117807
0.071122
-0.058970
-0.127365
0.046513
0.096694
0.030888
-0.000579
0.113865
0.016517
-0.063091
0.024970
0.171849
0.055302
-0.039434
-0.067968
-0.140321
-0.125968
-0.127245
0.130559
-0.090248
0.077421
0.016272
0.203100
-0.059952
-0.044200
-0.121188
-0.091837
0.315775
0.112881
-0.165651
-0.064218
-0.095778
0.103981
-0.011110
-0.098719
0.112715
-0.015848
-0.215676
0.195302
-0.009318
0.088302
0.209271
0.032712
-0.140411
-0.073317
0.009001
-0.007883
0.125187
-0.201436
-0.124007
0.001900
-0.020056
0.117363
-0.022020
0.178886
-0.312024
0.113169
0.021517
-0.133408
-0.220583
0.159290
-0.087495
0.176210
-0.016665
0.114699
-0.093055
-0.110455
0.142855
0.210764
-0.124821
0.004407
0.061615
-0.118418
-0.134108
0.073644
-0.153919
-0.154764
-0.246599
0.027717
-0.046745
-0.033810
-0.083436
0.186885
0.068965
0.055193
0.056566
0.172301
-0.140049
0.151556
-0.092300
0.191245
0.066417
-0.131484
0.274604
0.003118
0.088236
0.038065
0.137697
-0.061217
-0.012594
-0.024587
-0.097948
-0.002731
0.224821
0.240549
-0.107784
-0.092177
0.124129
-0.044424
0.002448
-0.059351
-0.065956
-0.096889
-0.055383
0.060097
0.033897
-0.107661
0.229858
-0.041300
-0.030571
-0.040733
-0.008807
-0.061572
0.057050
0.029971
0.005276
0.062169
-0.007967
-0.078795
0.055246
-0.113885
0.264431
0.036153
-0.081701
0.045109
-0.122427
0.122641
0.274660
0.074200
0.052122
-0.042404
0.039696
-0.015595
-0.127628
0.016686
0.101593
0.253966
0.073202
0.190154
0.026695
-0.091040
-0.033285
-0.023533
-0.060559
-0.086046
0.040411
-0.028340
-0.065257
0.028137
0.071665
0.082311
-0.072779
-0.018320
-0.214418
-0.112642
-0.101806
-0.127847
-0.287713
-0.097378
0.015298
-0.159260
-0.079742
0.258159
-0.207064
0.025094
-0.053562
0.031707
-0.171287
0.070020
-0.178205
0.141937
0.111045
0.121078
-0.069084
-0.163706
0.051340
0.095703
0.143084
-0.062300
-0.082746
-0.014917
0.070428
0.224499
0.008907
0.056115
0.107859
0.026125
-0.065236
-0.016010
-0.132350
0.025844
-0.023199
-0.026133
0.099730
0.081056
-0.040463
0.012416
0.215139
0.032665
0.233687
0.047594
0.091977
0.192704
0.032481
-0.142662
0.048649
-0.020607
-0.169776
0.168442
0.021141
-0.081083
-0.281843
-0.086347
0.038342
-0.091310
0.064135
-0.007690
-0.006255
-0.193884
-0.220727
-0.097590
0.158636
0.183004
-0.334356
0.044310
0.049554
-0.028933
-0.035995
0.006859
0.095603
0.038658
0.064125
0.112152
-0.016287
-0.148749
-0.163630
-0.139517
-0.122593
0.021355
-0.057819
-0.050494
0.097956
0.038263
0.101745
0.145266
0.081170
0.020118
-0.196470
-0.069785
-0.005395
-0.000489
0.051580
-0.143962
-0.039806
-0.008055
0.195176
0.039284
-0.044536
0.036573
-0.066052
0.044114
-0.135781
-0.081082
0.054684
0.054649
-0.132007
-0.043190
-0.129803
0.100797
-0.039686
0.071842
0.118557
0.121333
0.042515
0.026421
-0.017680
0.069873
0.072570
-0.052385
0.045507
0.100786
0.030361
0.008401
0.107794
0.067195
-0.071750
0.090135
-0.073956
-0.088395
0.055119
-0.123150
0.022802
0.096566
-0.064998
-0.037989
-0.078124
-0.070170
-0.013250
0.147073
-0.078468
-0.118133
-0.106166
0.024416
0.104711
0.133724
0.006228
-0.119337
0.003197
-0.027801
0.125481
0.124305
0.093863
-0.013794
0.096867
0.170480
0.055498
0.170075
-0.016938
0.014767
-0.135000
0.138834
0.105040
-0.108666
-0.070670
-0.078249
-0.015376
0.075587
0.031553
-0.133836
0.000070
-0.034682
-0.071057
0.139896
-0.022757
-0.012512
0.024052
0.153072
-0.188369
0.100553
0.191548
0.055158
0.091008
0.027124
0.070445
0.025193
0.130843
-0.137176
0.033935
-0.037788
-0.051101
-0.022230
0.084899
-0.089322
0.059787
0.015166
0.085706
-0.053787
-0.111597
0.090112
-0.023588
-0.061697
0.126529
0.105448
0.039626
0.066630
0.010758
-0.106857
-0.037447
-0.042538
-0.060389
0.009135
-0.174620
-0.181311
0.085197
-0.223483
-0.022039
-0.003475
-0.118097
-0.132345
0.146885
0.052997
-0.001234
0.136045
-0.215937
0.174371
0.059113
0.064157
-0.035809
0.073610
-0.144285
-0.205346
0.036215
-0.093124
0.079339
-0.060386
-0.040852
-0.022910
0.065737
0.007050
0.125525
0.118837
-0.036496
-0.206912
-0.202673
0.021664
0.149910
0.063751
0.009599
0.094317
0.170301
-0.003067
0.120503
0.027596
0.003696
0.193901
0.127552
0.012404
-0.027725
-0.063256
0.004980
-0.131420
0.058840
0.112874
-0.073887
0.148220
0.045826
0.026752
0.089959
0.111908
0.072649
0.121318
-0.024343
-0.080364
0.192050
-0.012780
0.176698
-0.094707
0.119138
-0.049154
-0.118250
-0.037435
-0.204414
-0.003490
-0.112579
0.036174
0.129394
0.157418
0.179831
0.133964
0.132950
0.097427
-0.120761
-0.211520
-0.064816
0.063255
0.110217
-0.116760
-0.004839
0.079933
-0.003259
0.235973
0.065086
-0.060249
0.048878
-0.193616
-0.019375
0.080493
0.108676
-0.005772
0.047945
-0.041095
0.105389
-0.149719
0.073107
-0.052296
-0.291752
-0.016578
-0.149614
-0.041394
-0.153324
-0.044227
0.072354
-0.061782
-0.088465
0.115155
-0.079318
0.153847
-0.012167
0.023743
-0.056933
0.016900
-0.094942
-0.018520
0.078470
-0.139293
-0.012394
0.170275
-0.063445
-0.013890
0.013106
-0.019529
-0.066758
0.176727
0.093248
-0.281820
-0.052271
-0.083873
-0.073562
-0.087335
0.165006
-0.092564
-0.063988
0.010369
-0.108385
0.109824
-0.114252
0.050205
0.122399
0.096225
0.045192
-0.031704
0.021289
0.000409
-0.178371
-0.044268
-0.182221
-0.042618
-0.040767
0.010088
0.123787
-0.055370
0.127394
0.008208
0.068718
0.212081
0.214147
0.149831
-0.017898
0.049095
0.041736
0.238145
-0.088036
0.056006
0.024764
-0.125277
-0.107263
0.089959
0.037923
0.159787
0.019364
-0.005863
-0.018118
0.091039
-0.014402
0.075693
0.026003
0.139525
-0.000271
0.110297
0.052310
-0.009222
-0.071334
0.061933
0.006674
0.124634
-0.046152
-0.014502
0.046408
0.064865
0.050533
-0.060315
-0.056389
0.056546
-0.147341
0.111058
-0.092992
-0.099997
0.022312
-0.161310
0.016738
-0.045536
0.091727
-0.148466
-0.256534
0.141968
-0.175258
-0.107921
0.122366
0.113642
-0.035831
-0.020513
-0.016669
-0.040604
-0.085661
-0.157896
-0.073906
-0.145104
0.020787
-0.093093
-0.190549
0.174157
0.039479
0.018596
0.073216
-0.091475
0.095739
0.004044
0.026783
0.137540
0.022303
0.255013
-0.068920
0.145715
0.002033
-0.160178
0.229465
0.051304
-0.066486
0.064545
-0.125286
0.072994
0.047960
0.073811
-0.237316
0.033576
-0.006368
0.041262
0.058187
-0.247954
0.067061
-0.024705
0.021479
-0.053965
-0.018688
0.003750
-0.012699
-0.061656
0.087400
-0.040279
0.011140
-0.074698
-0.094658
-0.093794
-0.001719
-0.073540
-0.195370
-0.184599
-0.079138
0.010958
-0.005789
-0.142664
0.063158
0.069430
-0.114003
0.032075
0.245033
0.010642
-0.136782
0.004394
0.115748
0.027846
-0.174867
-0.112147
0.199072
-0.100048
0.075667
-0.065875
0.196515
0.049585
0.024441
0.006437
0.094702
0.094697
-0.096749
-0.025235
-0.103202
-0.012202
-0.020610
-0.141048
-0.077793
-0.081394
-0.034391
-0.033583
0.052224
0.036943
0.034706
-0.042148
0.013515
-0.047053
0.112664
-0.038987
-0.211100
-0.181032
-0.014060
-0.161713
-0.107803
0.028669
0.013934
-0.060563
0.101260
0.011871
0.248977
0.078023
0.004767
0.064210
-0.037357
-0.012094
-0.016741
-0.097008
0.013088
-0.123423
-0.105909
0.031900
0.021650
0.287644
-0.000376
0.182023
-0.101129
-0.000893
0.143024
0.065209
-0.073248
-0.061982
0.070011
-0.076225
0.003124
0.047415
-0.042086
-0.027095
0.154903
0.010300
-0.100389
-0.240615
-0.023116
0.014489
-0.068977
0.141496
0.036519
-0.004345
-0.038511
-0.016363
0.024901
0.061961
0.011008
0.048995
-0.221376
-0.028560
0.047946
-0.040973
-0.130085
0.008384
-0.066429
0.045189
-0.048080
0.106363
-0.029658
0.014451
0.006347
0.260893
-0.088320
-0.013385
0.097655
0.052314
-0.251138
-0.007876
-0.193304
-0.273213
0.100531
0.199514
-0.136335
-0.262572
-0.032171
0.063829
0.080900
0.250044
0.211857
-0.144873
-0.320000
-0.003762
-0.023672
-0.052417
-0.039660
-0.040055
-0.042910
0.156674
0.107018
0.038466
0.077890
0.168931
0.052997
-0.001457
-0.042527
0.024566
0.052654
0.005754
-0.112683
-0.000779
-0.087716
-0.050456
0.000439
0.093357
-0.170843
0.085375
-0.027546
-0.055117
-0.108207
0.032225
0.125842
-0.057238
0.043537
-0.030712
-0.152213
-0.051641
0.009272
0.167943
-0.042663
0.037797
0.004410
0.147530
0.009897
0.179413
-0.133758
-0.124570
-0.046177
0.096628
0.088844
-0.032647
0.121773
0.117293
-0.094281
0.110663
-0.002103
0.216441
-0.159186
0.151126
-0.072233
-0.071550
-0.022629
-0.022185
-0.003317
-0.105733
-0.122623
0.123895
-0.103066
-0.219990
0.100179
-0.039529
0.031657
0.161073
0.014024
-0.104969
-0.050160
-0.129210
-0.175502
-0.016167
0.047572
-0.175196
-0.085698
0.118841
-0.025407
0.093801
-0.102328
-0.082700
0.056780
-0.056073
0.040367
0.000036
-0.187262
-0.012381
-0.045424
0.026276
-0.118596
-0.100906
-0.058604
-0.019977
-0.028481
0.113639
-0.083479
-0.113543
0.127332
0.218758
-0.049288
0.109142
-0.159790
-0.023682
-0.064559
0.012948
-0.008682
0.104496
0.129445
0.084311
-0.110557
0.035520
0.040397
-0.031325
0.007987
0.039859
0.164321
-0.154744
-0.068216
0.184113
0.012130
0.163745
0.156166
-0.097044
-0.030022
0.014716
-0.110759
0.072827
0.074829
-0.039325
-0.087341
-0.119607
0.038298
0.131886
0.130547
0.088671
0.017735
0.019675
0.039400
0.124438
0.040545
0.000399
0.074898
0.065290
-0.139196
0.023031
0.238062
0.029454
-0.104379
-0.060562
-0.096651
-0.128619
0.014140
-0.099953
-0.083847
-0.106947
0.097812
0.285996
-0.138333
0.045161
0.080544
0.203287
-0.121021
0.142778
0.009955
0.050835
0.201620
0.085389
0.060806
-0.023535
0.112045
0.047559
0.092694
0.006527
-0.205992
-0.110480
-0.036056
-0.136687
-0.091930
0.041335
-0.065810
0.078807
0.201708
-0.018916
-0.051897
-0.020501
-0.036114
0.017854
-0.073198
0.004131
-0.145213
0.035651
-0.020590
-0.146407
0.217687
-0.147089
-0.009936
-0.120131
-0.039576
0.075420
-0.109883
-0.110865
0.144842
0.120584
0.144950
-0.194217
-0.003597
0.016223
0.236606
-0.133799
-0.162787
0.117672
-0.054040
-0.154669
0.101757
0.120897
-0.230806
-0.041996
0.035512
0.071967
-0.055614
0.015804
0.167581
0.019214
-0.071013
-0.008753
0.013061
-0.147581
0.171548
0.143345
-0.080820
-0.060044
0.045012
-0.120413
-0.118002
-0.068401
-0.229701
0.148765
0.007412
-0.179577
0.006205
-2.842061
