0.034954
-0.228477
-0.080760
0.036487
0.080761
-0.103615
-0.188848
-0.143979
0.042126
0.165126
0.292240
-0.095977
0.085967
0.077020
0.295187
-0.153930
0.019470
0.089565
0.017370
0.145768
0.201246
0.037250
-0.030061
0.020752
-0.020880
-0.042289
-0.066622
0.045684
0.135201
0.001296
-0.001357
-0.156656
0.153625
-0.079976
0.098922
-0.040340
-0.062654
-0.139702
-0.223405
-0.042846
0.084037
-0.097253
-0.165162
0.144072
-0.006511
-0.130247
-0.224437
0.103256
-0.060203
0.074810
0.122335
0.089276
0.111866
0.191235
0.012386
-0.075771
-0.001264
-0.021240
-0.218059
0.080507
0.041979
0.242447
0.088902
-0.082830
-0.012052
0.073599
0.143584
0.236052
-0.026044
0.092517
0.030149
0.028055
-0.143147
-0.001608
0.131899
-0.196920
0.076263
-0.266673
-0.236627
-0.068508
-0.044478
0.075372
0.382344
-0.058340
-0.138099
0.184825
-0.070713
-0.003163
-0.035051
-0.170850
0.088460
0.132870
0.150318
0.022379
0.060392
0.053280
0.035810
-0.003030
0.022043
0.065926
-0.092553
0.083433
0.209273
-0.011763
-0.074931
-0.072277
0.048161
-0.091333
0.110715
0.140585
0.000519
-0.168709
0.011555
0.091984
0.286386
-0.049245
-0.052194
0.030789
0.141493
0.061776
-0.088478
0.089933
-0.042512
-0.061260
-0.068844
0.015841
0.040762
-0.112515
-0.026565
-0.163419
-0.107669
0.082065
-0.061402
-0.106373
0.025432
-0.060879
0.255094
-0.007831
-0.181342
-0.034418
-0.208504
0.016944
-0.190621
-0.071363
0.062470
0.070894
-0.243090
-0.063506
0.107719
-0.071747
-0.086741
0.109070
-0.007443
0.008414
0.092526
-0.145948
0.146760
-0.004805
0.080904
-0.025041
-0.053259
-0.070683
-0.184669
0.034719
-0.094525
0.011230
0.090538
0.134781
-0.009526
0.134253
-0.042996
0.067880
0.045090
0.082281
0.084346
-0.189148
-0.002599
-0.069458
-0.087766
-0.154269
-0.005583
0.089994
-0.071125
-0.065555
0.165298
0.096814
-0.032804
0.060012
0.110269
0.063453
-0.008597
-0.133869
-0.090437
0.028260
0.068142
-0.149602
0.044388
-0.154920
0.096448
0.074041
-0.091270
-0.122456
0.022149
0.189234
-0.019624
-0.084710
0.009436
-0.086907
0.041014
0.041634
-0.007335
0.213477
-0.001077
-0.116865
-0.109994
0.102966
0.136108
0.053154
0.028513
-0.039245
0.014376
-0.129546
-0.114570
0.078333
-0.046188
0.084147
-0.052356
0.058877
-0.178310
0.104478
-0.087708
0.022310
0.003004
0.016448
0.098320
0.235776
-0.031251
-0.073139
0.007913
0.023669
0.076688
0.043293
-0.078500
-0.003412
0.005201
0.168530
-0.134826
-0.133553
-0.083299
-0.107602
-0.121731
-0.129939
0.037048
0.085069
0.020115
0.139466
-0.023509
0.015160
0.137932
0.288239
0.007586
0.125860
-0.114276
-0.157269
-0.058184
-0.055967
0.176826
-0.241758
-0.135456
-0.061271
0.156846
0.183659
-0.001790
-0.012790
-0.018791
0.037081
-0.074593
0.002924
-0.185958
-0.019614
0.200972
0.094715
-0.015290
0.072513
0.001369
-0.204258
-0.203939
0.079202
0.019385
0.032037
-0.008406
0.087567
0.055839
0.007944
-0.052175
0.370340
0.064636
0.256077
-0.052316
-0.006012
0.042047
0.012139
0.193793
0.126217
0.294260
-0.133914
0.080552
0.224503
0.096802
0.246082
-0.106130
0.045116
0.121817
-0.064622
0.064936
0.053617
-0.043031
-0.061059
0.078364
0.082217
0.080134
-0.089223
-0.041617
0.034904
0.110381
0.121880
-0.114033
0.048312
-0.082722
0.040046
-0.203634
0.123454
-0.135234
0.060392
-0.043556
-0.163026
0.094354
0.095498
-0.012955
-0.161192
0.011869
-0.076246
-0.124713
0.124453
-0.044563
-0.095711
0.018561
0.004879
-0.038997
0.085122
-0.009520
-0.006421
-0.029575
0.158493
0.110451
-0.146265
-0.066700
-0.012620
-0.075922
0.106460
0.044615
-0.139664
-0.287414
0.003801
0.219281
0.114986
-0.222555
-0.094622
-0.209672
0.133021
-0.039413
-0.138501
0.103276
-0.084719
-0.022453
-0.123489
0.114789
0.037482
0.053169
0.021184
-0.109228
-0.039888
-0.113889
0.151999
0.002752
-0.028660
0.092052
-0.093897
-0.015662
0.200884
-0.008293
0.021484
0.098491
-0.217528
0.034660
0.091396
-0.135914
0.149189
-0.238297
-0.039498
-0.043574
0.003008
0.144268
0.047156
-0.097601
-0.131214
0.100461
-0.137299
0.160994
0.018421
0.050405
-0.029453
-0.137139
-0.125945
-0.065478
0.068046
-0.078074
-0.233107
-0.126114
0.132887
-0.140698
-0.112180
-0.173580
0.109028
0.154182
-0.078526
0.043569
-0.038890
-0.097063
-0.062915
-0.110659
0.002006
-0.018784
-0.183003
-0.240336
0.070415
0.235571
-0.018989
-0.218911
0.110440
0.135653
-0.152326
0.085219
-0.112658
0.164404
0.011913
0.062982
-0.339058
-0.166880
-0.254464
0.013865
0.020380
0.074217
-0.056218
0.010976
-0.032224
0.040777
0.104487
-0.096073
0.112386
0.046012
0.088666
0.204545
-0.101297
0.089203
-0.098863
0.171720
0.022191
-0.021080
0.102036
0.016065
-0.065106
-0.056776
0.144790
-0.045997
-0.023444
-0.005824
-0.180683
-0.115650
-0.074348
0.198429
-0.078675
-0.039830
-0.032969
-0.103335
-0.024336
0.085539
-0.181097
-0.114539
-0.096866
0.057961
0.135082
0.092594
0.169197
0.069449
-0.014952
-0.024650
0.047721
-0.141738
-0.083954
0.089104
0.071126
-0.046079
-0.086983
-0.034754
0.061824
0.110857
0.012873
0.160457
-0.023519
-0.007903
0.068313
0.241522
-0.354273
-0.097304
-0.257624
-0.120536
-0.061216
-0.046858
0.045492
-0.125451
-0.295113
0.210317
0.095991
0.094380
0.102778
0.100627
0.149337
-0.100068
-0.120084
0.102809
-0.037228
0.136838
-0.056063
0.431585
-0.035324
0.066758
0.175932
0.140398
-0.066351
0.003086
-0.040865
0.187541
0.027062
0.030176
0.069306
-0.121040
0.000020
0.163779
-0.076325
0.008636
-0.254268
0.078954
0.164132
0.047574
-0.047957
-0.000404
-0.019354
-0.101103
0.228102
0.187119
-0.106469
0.233044
0.044229
-0.108041
-0.288450
-0.158439
0.069620
0.360812
-0.150259
-0.086604
-0.099173
0.071645
-0.049389
0.151520
0.062542
0.088630
-0.128707
-0.041218
0.006331
0.045588
-0.014880
-0.117302
0.058804
0.044709
0.115276
-0.163535
-0.144556
-0.198149
-0.083381
-0.223520
0.127137
0.039160
-0.055373
0.092986
-0.283328
0.006273
0.111207
0.153228
0.119661
-0.066593
-0.123309
0.088305
0.082567
0.158530
0.146389
0.217838
0.077778
-0.138882
0.167610
-0.062177
0.064471
-0.121309
0.122849
0.333677
0.197665
-0.031788
-0.021868
0.260621
-0.016748
-0.121498
-0.149311
-0.159742
-0.134555
0.127614
-0.148179
-0.119988
-0.169950
-0.209944
-0.100671
-0.086124
0.017127
0.181497
0.030472
0.034575
-0.209937
0.045147
-0.123690
-0.077639
-0.105549
-0.064034
0.083174
0.026994
0.043946
0.085968
0.075803
-0.068154
0.114770
0.144252
0.023430
0.000582
0.143985
0.170498
-0.015913
0.072811
0.118951
0.005187
0.039088
-0.166091
-0.054600
-0.054811
-0.055197
-0.122632
0.098531
0.022375
-0.087040
-0.064009
0.177090
-0.033654
-0.000092
-0.168356
0.215065
0.052239
-0.122969
0.001211
-0.075979
0.029975
-0.242079
0.037792
-0.006387
0.143658
0.002144
-0.026614
0.009492
0.151170
-0.034675
0.195639
0.153371
0.093134
-0.047154
0.060240
0.109964
0.054251
0.032647
-0.007820
0.050696
-0.066412
0.121130
0.030097
-0.039814
0.141219
0.010551
0.085809
0.236260
-0.063548
-0.089945
-0.153809
0.009504
0.040153
0.007457
-0.100421
-0.000635
-0.053009
0.128657
-0.049641
-0.136749
0.017491
-0.060557
-0.067094
0.008386
0.002784
0.101587
-0.039777
0.014817
-0.034972
-0.141187
-0.025410
0.206483
0.103225
-0.176135
-0.095473
-0.123602
0.006654
-0.161684
-0.066939
0.141992
0.139659
-0.051822
0.160704
0.186338
0.210627
0.185033
0.032167
0.195723
0.005615
0.016630
0.009173
-0.081405
0.114231
-0.050596
-0.063168
-0.097402
-0.210542
-0.058102
-0.000221
0.039508
0.039327
0.163690
0.019846
0.119683
0.157915
0.243349
0.212261
-0.281494
-0.056006
-0.052215
0.013380
-0.084283
0.015973
0.188239
0.141281
0.074291
-0.083147
0.146337
-0.069382
0.084376
0.026739
-0.106793
0.089713
-0.074927
-0.080349
-0.004648
0.048850
-0.031284
-0.050533
-0.082977
0.018425
-0.024284
-0.134647
-0.073912
-0.058036
0.079248
0.046670
0.129016
0.063839
0.034657
-0.134303
-0.045684
0.047614
0.043437
0.148058
-0.150937
0.080132
-0.113248
-0.074005
-0.026289
0.202329
-0.103471
0.066249
-0.030358
0.071295
-0.042120
-0.073106
-0.008492
-0.059539
-0.088910
0.013986
-0.052449
-0.051840
0.170933
-0.056146
-0.059184
0.017611
0.023728
-0.130154
-0.067825
-0.027622
-0.118156
-0.280673
-0.016508
-0.098648
-0.006137
-0.010159
-0.050027
0.035133
0.213548
0.165233
-0.000588
0.024839
-0.184694
-0.333021
-0.002881
0.016244
-0.211036
-0.060899
0.086911
-0.126173
-0.060471
-0.147132
0.087265
-0.149426
-0.091816
0.015779
-0.235429
-0.011382
-0.119994
-0.064956
-0.029920
-0.210295
-0.040021
-0.087058
-0.113938
-0.074406
0.087025
-0.202935
0.091341
-0.009655
0.011046
0.002799
0.118479
-0.151324
0.323555
0.076757
-0.103310
-0.222270
0.038039
-0.077986
-0.160616
0.256545
0.096345
0.056186
0.089401
-0.070853
-0.016746
0.101676
0.155306
-0.049375
0.125925
-0.083222
0.031634
-0.144185
0.191659
0.071478
0.011312
-0.116566
0.086659
-0.167338
-0.141544
-0.098157
0.016116
-0.079813
0.105870
0.032160
0.169679
-0.147379
0.153785
-0.144421
-0.015052
-0.048607
0.023865
-0.001316
-0.066256
0.133090
0.035434
0.001635
-0.143410
-0.050560
-0.083829
0.045420
0.254716
0.049377
-0.037924
-0.234884
-0.126658
0.014693
0.127251
-0.040651
-0.171942
-0.123663
-0.059653
-0.015817
-0.082687
-0.199823
-0.045727
-0.003845
0.053557
-0.064019
-0.097654
-0.041348
0.015608
-0.097783
0.030285
0.189861
0.121461
-0.048362
0.176092
0.150768
-0.064199
-0.217734
-0.034513
0.056522
0.116477
0.002311
-0.070628
0.074198
0.076777
0.072056
0.054181
-0.049779
-0.024286
-0.010692
0.011532
-0.065022
-0.206857
0.002761
-0.015589
0.185299
0.005438
-0.018220
-0.156755
0.045494
0.082806
-0.135736
0.074643
-0.076598
-0.214203
-0.051929
-0.017985
0.092354
-0.019187
-0.054016
-0.027204
0.098583
0.044129
-0.193700
-0.260564
-0.239643
-0.094535
-0.021006
-0.186566
0.033666
-0.222980
-0.055450
0.089876
-0.127137
-0.029518
-0.225657
0.079192
-0.101572
0.021514
0.201804
0.064959
-0.007513
0.053873
-0.002490
-0.017232
0.090800
-0.048989
0.010639
-0.101801
-0.033372
0.038652
0.132249
-0.239575
-0.211289
0.022688
0.029792
0.031329
0.074631
-0.076458
-0.128194
-0.023672
-0.215448
0.048115
0.043942
-0.021165
0.141295
0.132340
-0.108019
-0.120777
0.095659
0.096913
-0.088524
-0.110731
-0.064684
-0.149728
0.002825
-0.045300
0.312350
-0.017541
-0.001410
0.107911
0.023754
-0.125463
0.055227
0.062290
0.067053
-0.152958
-0.087216
-0.146706
-0.029122
0.035630
0.022214
-0.185097
-0.051695
0.084014
0.061484
0.002210
0.038354
-0.015333
0.078305
-0.041437
-0.084589
0.077409
0.178193
0.168543
-0.148589
-0.106568
0.072546
-0.077433
0.085876
-0.092460
-0.097320
0.146482
0.013860
0.079860
0.270686
0.078841
-0.071588
0.081482
-0.050807
0.005815
0.382803
0.144472
-0.182595
-0.132375
-0.284991
-0.138775
-0.115780
-0.006847
-0.002479
-0.368402
0.054869
-0.216894
-0.059156
0.067682
0.288568
0.295861
-0.211738
-0.007682
0.243446
0.080652
0.123325
0.094408
-0.127386
-0.349881
-0.193683
0.135406
0.131267
-0.104847
0.167598
-0.107815
-0.020963
-0.059520
-0.038013
0.225223
-0.035715
-0.048714
-0.106191
0.078976
-0.019995
0.037805
0.149080
0.050215
0.122933
-0.026668
-0.256363
-0.089246
-0.022798
-0.130597
0.021853
0.140348
0.080327
-0.022163
0.097383
0.044880
0.048167
0.187152
-0.073798
0.062557
-0.044107
0.017952
-0.055493
0.016483
-0.079561
0.222201
0.154539
0.229917
-0.099713
0.076666
0.209548
0.030546
0.028155
-0.022036
0.251037
0.076101
-0.054289
0.070117
0.046522
0.053527
-0.089347
-0.105725
-0.072783
0.096388
-0.187471
0.034366
-0.063072
0.085733
-0.085977
-0.145165
0.003605
0.105053
-0.000213
-0.056549
0.118779
-0.053329
0.057776
-0.106646
0.063573
-0.041737
-0.010840
0.129906
0.033284
0.019934
0.010298
-0.014552
0.071558
-0.022865
0.036256
0.379126
0.110122
-0.107476
-0.153442
-0.211639
0.028421
0.078234
0.180051
0.045896
0.059054
0.040795
0.074778
-0.048821
-0.085290
0.198860
-0.068011
0.053989
-0.010230
-0.025215
0.081400
0.007744
-0.087664
0.178368
0.123889
-0.168862
0.026458
-0.039847
-0.104384
-0.241142
0.014095
-0.093676
0.157480
-0.016469
-0.152826
0.054383
-0.157562
-0.010209
0.098116
0.122097
0.168218
-0.127269
0.041708
0.229231
0.116395
-0.003964
-0.188785
0.035766
-0.065003
-0.096854
-0.111620
-0.035270
0.044560
0.059864
-0.070857
0.173214
0.028500
0.049614
0.082030
0.117693
-0.077364
0.163501
0.047380
-0.027727
-0.000878
-0.010187
-0.114813
-0.031133
-0.010657
-0.022080
0.019780
-0.059334
-0.107636
-0.114798
-0.204520
0.007857
-0.076964
0.079909
-0.020595
-0.087785
-0.024160
0.042679
0.118691
-0.105970
0.055340
-0.001831
0.118411
0.002016
0.191212
0.066623
0.137133
-0.026647
-0.191034
-0.024447
-0.083003
0.211787
0.049079
-0.103289
0.108422
-0.037901
-0.031168
-0.035921
-0.036174
0.044410
0.048387
-0.090919
-0.153679
-0.035350
-0.152421
0.106794
0.108132
0.019944
-0.243078
-0.001241
-0.141530
0.245003
-0.131875
-0.037694
-0.069025
-0.088618
-0.149758
-0.108752
0.019879
0.034584
0.087505
-0.053932
-0.062653
0.108508
-0.049226
0.032026
-0.007513
0.113488
-0.033478
-0.110295
-0.050899
-0.114444
0.078100
-0.062093
0.033585
-0.222469
0.022106
-0.096076
-0.115992
-0.030127
0.024994
0.119199
0.033107
0.031153
0.105300
0.091255
0.222617
0.153610
-0.065146
-0.039236
0.026092
0.090603
-0.146488
0.291794
0.020933
0.031373
-0.002582
-0.063552
0.040655
0.121890
0.215580
-0.076546
-0.035430
0.241743
-0.054659
-0.196080
0.059564
0.137379
-0.122303
-0.194843
-0.065613
-0.100254
-0.099654
0.042440
0.113145
-0.011396
-0.091615
0.041740
0.215945
0.032885
0.109174
0.206810
0.161033
-0.048562
-0.007689
-0.005983
-0.001536
0.150323
-0.136641
-0.115442
0.105991
-0.068052
-0.141063
-0.023737
-0.083186
0.122829
0.213047
0.081501
-0.029951
0.083308
-0.134371
0.087518
0.182897
0.029434
-0.198222
-0.055499
-0.043144
0.024852
0.114997
-0.090023
-0.034676
0.068924
-0.000211
0.000026
0.001332
0.067076
0.007002
0.053137
-0.041638
0.153304
0.022368
0.031242
-0.063965
-0.160682
-0.286437
0.103926
-0.184517
0.158929
0.074963
-0.013916
-0.029152
0.072929
-0.186477
-0.005432
-0.031592
-0.105239
-0.205528
0.086105
-0.062776
0.039896
0.074631
0.077067
-0.092724
-0.081846
-0.125737
-0.247555
-0.057104
-0.212060
-0.257384
0.067243
0.019830
-0.302582
0.149092
0.066297
-0.030077
0.038263
-0.066364
0.127379
0.041006
-0.041366
-0.150001
-0.072457
-0.036636
0.057237
0.035588
-0.026901
0.133390
-0.097411
-0.029556
-0.119124
-0.061229
0.073549
-0.057830
-0.109588
-0.105751
0.075689
0.103377
0.083808
0.080542
0.110383
-0.026599
-0.059681
0.093034
0.089628
-0.022555
0.161766
0.066009
0.028636
0.007362
0.179791
-0.051584
0.162148
0.010676
0.067433
-0.027670
-0.152528
-0.089226
-0.130135
0.034772
-0.044298
-0.023014
-0.024591
-0.095343
0.258179
0.071286
0.177010
0.011062
0.011835
-0.010748
-0.000842
-0.057784
0.004675
0.024759
-0.017448
0.003428
-0.045884
-0.089759
0.071844
-0.063860
0.154803
-0.042115
0.001875
0.111794
-0.024206
-0.026764
0.006040
-0.049754
-0.057720
-0.022140
0.003552
0.155955
-0.207196
-0.078634
-0.195910
-0.142974
0.044409
0.017753
-0.145543
-0.018214
0.053972
-0.014486
-0.082875
-0.030618
0.040218
-0.080233
-0.265847
-0.082126
0.018097
-0.180298
0.132849
-0.075441
-0.069747
-0.138495
-0.037582
0.106670
0.095220
-0.236473
0.068159
-0.197870
-0.008845
0.127796
0.101372
-0.143567
0.051584
0.031058
-0.044611
0.180202
-0.232517
-0.033546
0.068892
-0.056154
0.095216
0.124460
0.052884
0.043355
-0.123827
-0.060083
-0.022743
-0.052374
-0.013223
-0.039480
-0.077109
0.030619
0.030712
0.103612
0.071955
0.127864
-0.148436
0.049971
0.148148
0.054921
-0.047335
0.201714
0.198715
-0.121810
0.041160
-0.024667
-0.034439
-0.050548
0.111379
0.137477
0.108300
-0.140432
0.073481
-0.169009
0.238085
0.122785
0.082732
-0.061047
-0.018265
0.071913
0.025585
0.024418
-0.066105
-0.005119
-0.140179
-0.325667
0.038159
-0.046338
-0.141133
0.149132
0.236851
-0.017399
0.024146
0.103096
-0.138331
0.098046
-0.040181
-0.147574
-0.110306
-0.004004
0.017889
-0.195583
0.204911
0.159482
-0.012725
-0.248445
0.236896
0.050742
-0.182770
-0.265436
-0.096435
0.179112
-0.232575
0.055527
-0.048297
-0.116532
-0.118594
0.123562
0.237707
-0.240845
0.005985
0.082658
-0.210449
-0.224394
-0.016949
-0.002919
-0.224665
0.057814
-0.113429
-0.242363
-0.188400
0.057993
0.223764
0.079309
-0.001656
0.049134
0.154859
0.000481
0.170299
0.096763
0.189069
-0.048859
-0.021593
-0.035468
-0.001656
0.100804
-0.008007
0.104973
-0.078069
0.116995
-0.090783
-0.011256
0.135528
0.075086
0.228192
0.176168
0.119509
0.095720
0.041064
0.020172
-0.062677
0.129724
0.016063
0.146105
0.018829
0.127633
0.111252
0.050460
-0.008997
-0.088386
0.010992
0.150198
-0.037257
-0.027072
0.142575
0.079496
-0.020303
-0.009242
-0.102823
0.031262
0.171338
0.037800
0.077986
-0.174614
-0.093125
-0.133003
0.158576
-0.023903
-0.040819
0.027864
0.039929
-0.133716
-0.011537
0.166794
-0.039386
-0.159722
0.117382
-0.148180
-0.117093
-0.216176
0.140494
-0.083746
0.172036
0.086773
-0.217369
-0.088875
0.084489
0.047526
0.003247
-0.063440
0.107598
0.144220
0.101528
0.044712
-0.025768
-0.145455
-0.110699
-0.172237
-0.068232
-0.020448
-0.232429
-0.097117
-0.039874
0.017971
0.053066
0.046298
0.112658
-0.114700
-0.085516
0.054705
0.128398
0.098599
-0.153805
0.045753
-0.085846
-0.012218
-0.056190
-0.278788
-0.084519
-0.143278
-0.004429
-0.093356
-0.069354
0.090299
0.072767
-0.017509
-0.057251
-0.078286
0.065499
-0.031720
-0.001919
-0.000420
0.227634
-0.084385
-0.020630
-0.027815
-0.101294
-0.144689
0.009955
-0.173449
0.056587
-0.126916
0.120922
-0.131602
0.131004
0.064803
-0.113135
-0.144242
-0.070596
-0.149845
-0.058197
-0.070861
-0.071874
-0.109487
0.166491
0.036801
0.139010
0.114062
0.036620
0.123352
0.183208
0.000560
0.044572
-0.024829
0.025028
0.055228
-0.155343
0.004532
0.187908
0.017445
0.060346
-0.174862
0.123262
0.140772
-0.102880
0.169078
-0.062928
-0.033582
0.104565
0.019580
0.179760
0.252088
-0.016897
0.233232
-0.036979
0.041412
-0.096401
-0.073446
0.019694
0.003066
0.100365
-0.063064
-0.108218
-0.002276
0.152342
0.087080
-0.123031
0.096390
-0.025428
0.007303
-0.029084
0.097532
-0.172668
0.046929
-0.196916
-0.000164
0.090601
-0.117694
-0.087974
-0.052822
-0.021290
0.170297
-0.171835
0.093314
-0.094197
-0.088392
-0.050242
0.088429
0.127509
0.076221
0.044574
-0.072882
-0.000165
-0.123036
0.055022
0.002354
-0.081653
0.083333
-0.134130
-0.071158
-0.018706
0.173884
-0.022784
0.057209
0.116161
0.131658
-0.033048
0.006920
0.121066
-0.014972
-0.075473
0.117828
0.041306
-0.021714
0.209937
-0.104871
-0.034870
-0.104512
-0.082549
0.088565
0.117642
-0.111219
0.088548
0.123271
-0.008174
-0.087368
-0.127616
-0.093064
0.204903
-0.155053
-0.044693
0.122801
-0.022514
-0.094451
0.136577
-0.111029
0.086198
-0.035585
0.046961
0.167546
-0.153251
-0.266405
-0.108841
-0.112735
0.117235
-0.025621
-0.026760
-0.000854
-0.043275
-0.007440
0.139608
0.059628
-0.163092
-0.135693
-0.116143
-0.142835
-0.189887
-0.006734
-0.053991
0.086981
0.115807
-0.041357
-0.026659
0.007218
0.107482
0.038131
-0.120924
-0.154156
0.110032
-0.077906
0.163288
-0.112673
0.105250
-0.148905
-0.047667
-0.035482
0.089224
0.044914
0.237624
-0.049534
0.086489
0.230474
0.075770
0.094595
-0.063091
-0.017582
0.088960
-0.024997
0.016067
-0.022498
0.229458
-0.003296
0.031049
-0.143274
-0.173603
-0.071744
0.068338
-0.100661
-0.045867
0.006804
0.044734
-0.127526
-0.078259
-0.064314
0.072840
0.199586
0.002651
-0.040526
-0.003754
-0.181884
0.073950
0.134294
0.078960
-0.027787
-0.004690
-0.011421
0.132593
0.051133
-0.197563
-0.062208
-0.076439
-0.063299
0.040499
0.087772
0.037957
-0.082045
-0.072170
0.025286
-0.013261
0.098755
-0.088693
-0.144933
0.038380
-0.074791
0.019662
0.043880
0.237504
0.031328
0.035231
-0.002528
-0.153986
0.104060
0.086794
-0.010490
-0.011140
0.011456
-0.142936
0.027409
0.057363
-0.004948
0.014446
-0.043203
-0.061566
0.106493
0.024771
-0.108330
0.053168
-0.042897
0.082926
-0.025471
-0.081487
0.041973
0.050987
-0.013649
0.078436
0.025988
-0.171904
0.046017
-0.077498
0.167896
-0.024087
-0.022554
0.054446
-0.095816
0.114195
-0.082853
0.042501
0.114296
0.023842
-0.073965
0.089397
-0.004828
-0.078470
-0.088909
0.059879
-0.087053
0.005684
0.116743
-0.192174
0.137474
-0.045666
-0.096783
0.091753
0.086815
-0.208976
0.074999
-0.023774
-0.010888
-0.033032
-0.136651
-0.063144
-0.098381
-0.102130
0.030142
-0.022747
-0.001429
-0.008487
0.111287
-0.188818
0.163678
0.071339
-0.038850
0.060607
-0.081228
-0.073477
0.006672
0.107579
0.006022
0.046263
-0.131260
0.065412
-0.183873
-0.064275
0.012247
0.041296
-0.007481
0.144634
-0.048465
-0.068946
0.096219
0.159033
-0.052329
0.099245
0.108538
-0.167991
-0.229476
0.142950
-0.115467
-0.037478
-0.021436
-0.007108
-0.028258
-0.004784
-0.042954
0.030548
0.170997
-0.031341
0.167334
0.074263
0.103391
0.136187
0.176562
-0.185008
-0.070114
-0.049039
-0.023055
-0.171225
0.041383
0.028857
-0.038944
-0.063443
0.087028
-0.027043
0.115206
0.024395
0.018182
0.094777
0.224325
-0.121120
0.035388
0.140648
0.039599
-0.005628
0.024872
0.021862
-0.066043
-0.207239
0.259013
-0.230950
0.163017
0.064830
0.145558
0.099920
0.094486
0.017684
0.030243
-0.036256
-0.116245
-0.289244
-0.112183
0.115932
0.052603
0.031857
0.264285
0.057528
-0.119468
0.228049
0.106271
-0.108588
-0.212787
-0.067248
0.175694
-0.200756
0.105956
0.094051
-0.282569
-0.328249
-0.242668
-0.061445
0.046130
0.154718
0.248157
0.054813
-0.100079
0.285860
0.184734
0.193779
0.026648
-0.082320
-0.046850
-0.237403
0.057763
0.058570
-0.009529
0.042311
-0.068829
-0.022574
-0.011602
0.165906
-0.045116
0.140222
0.089841
0.007722
0.214700
0.273481
-0.116014
0.033344
-0.022587
0.076285
0.046655
0.065121
0.170617
-0.043958
0.111905
0.031795
0.008406
0.153775
-0.104369
-0.084090
-0.071313
-0.117756
0.108012
0.043233
-0.021290
0.013432
0.037958
-0.024561
-0.120628
-0.271044
0.071871
-0.090787
0.127310
0.009205
0.015165
0.013464
0.062392
0.044533
0.042089
0.094804
-0.115684
0.045085
0.012936
0.001072
0.094569
0.058640
-0.023297
-0.066816
-0.081066
0.095723
-0.015084
-0.061769
-0.007425
-0.063888
0.170619
0.089029
-0.041228
-0.214883
-0.082282
0.079742
0.014854
-0.005944
-0.040600
0.103018
-0.109400
-0.015611
0.037873
-0.108717
0.160430
0.087912
-0.072587
0.056493
-0.062132
0.119656
-0.076410
0.133335
-0.135268
-0.149615
0.027585
-0.048770
0.105870
-0.340688
-0.040470
-0.168433
-0.061413
0.174755
0.095291
-0.039613
-0.206244
-0.006448
0.125471
0.189258
0.075274
0.028437
0.025357
0.256825
-0.073752
-0.008671
0.158693
0.058138
0.015499
0.114860
0.093808
0.187057
-0.143179
0.089982
0.090877
0.071476
-0.055509
0.131677
0.052711
-0.080490
-0.081735
-0.093968
0.016308
0.046947
-0.023719
-0.048508
-0.088086
-0.018186
0.163622
0.154700
0.219102
-0.117162
0.033563
0.086031
0.032474
0.142731
-0.144475
-0.084414
0.117607
-0.067468
-0.057223
-0.198090
-0.044040
-0.089379
-0.069226
-0.069725
0.225645
-0.103640
0.023773
0.098823
0.003925
-0.065365
-0.219543
-0.105385
-0.093501
-0.104981
-0.139283
0.027783
0.025811
-0.022574
-0.078509
-0.071673
-0.058167
-0.014501
-0.063869
0.025218
0.023751
0.019449
-0.172157
-0.022868
-0.118881
0.081418
-0.246038
0.168307
0.102929
-0.065967
-0.025066
-0.153136
0.064284
-0.116392
0.121186
0.008597
-0.126634
0.070435
0.073152
0.052205
0.073753
-0.036832
-0.104073
0.153173
-0.040236
-0.011945
0.010451
-0.237237
0.141096
-0.033787
-0.001272
-0.099625
0.062011
-0.227443
-0.071054
0.124771
-0.172846
0.018880
-0.224759
-0.100716
0.116160
0.104774
-0.178944
0.075268
0.172427
-0.107553
0.098112
-0.107676
-0.140601
0.038821
-0.124086
0.006989
0.129998
-0.023737
-0.059382
0.133250
0.058489
-0.066063
0.156911
0.093468
-0.023898
0.055663
0.064249
0.180154
-0.011213
0.049579
-0.095434
-0.225023
-0.108343
0.187047
-0.066337
-0.037389
0.066797
0.012745
0.013819
0.072425
0.122036
0.030700
0.185149
-0.142082
-0.090896
0.077097
-0.098789
0.270885
-0.196171
0.147037
0.072885
-0.166050
-0.088147
0.009365
-0.059239
0.224728
-0.028037
0.037867
0.055065
0.120412
0.059704
-0.060248
-0.048286
-0.159467
0.003303
-0.020663
0.034728
-0.070768
-0.127015
0.052203
0.054884
0.096078
0.166232
0.087574
0.113177
-0.013862
0.057806
-0.040917
-0.139711
0.040888
-0.169879
0.083885
-0.034434
-0.054782
-0.051537
-0.016822
-0.010415
0.054531
-0.063618
0.145335
-0.080656
-0.079175
0.053985
0.151464
-0.093685
0.128832
-0.092893
-0.175360
0.104420
-0.265333
0.066121
0.055431
-0.121884
0.026191
0.034942
-0.135862
0.089007
0.120960
-0.081675
0.006358
-0.018553
0.112360
0.039026
-0.166796
0.080308
0.016937
-0.010681
-0.034159
-0.102561
-0.053150
-0.230244
0.028888
-0.176582
0.100789
0.027090
-0.142994
0.025982
0.123327
-0.035849
0.015967
0.081328
-0.025040
0.164346
-0.005717
0.010183
0.009417
-0.107800
-0.016925
0.135024
0.235300
0.011624
0.030713
-0.045337
-0.001423
0.038694
-0.071091
-0.002792
-0.079375
-0.052083
-0.048064
-0.099495
0.066889
-0.117223
0.151431
-0.020226
-0.028121
-0.106165
-0.054888
-0.005340
-0.010035
-0.141853
0.084143
-0.078855
-0.049550
-0.063415
0.130240
0.032329
0.043311
-0.060568
0.119452
-0.015523
0.031297
-0.046884
-0.128419
-0.012447
0.019905
0.166796
-0.055221
0.037736
-0.081551
0.008339
0.229434
0.006703
-0.057766
0.023688
0.190732
0.064724
0.100898
-0.092750
0.023589
0.001853
-0.020598
-0.123581
-0.152692
0.010552
0.013371
-0.046957
-0.116494
0.027858
0.067692
-0.007415
0.004941
-0.149398
0.091844
0.042648
-0.082879
0.019199
-0.113912
-0.079946
-0.151905
0.040118
-0.041693
-0.063387
0.010073
-0.136429
-0.032391
-0.112828
-0.193914
-0.049151
0.018333
0.045476
-0.123981
-0.152154
0.038279
0.058899
-0.193963
-0.022702
-0.253509
-0.163094
-0.174066
0.106753
-0.017184
-0.068726
0.057257
-0.066477
-0.041137
0.096164
-0.109860
-0.037464
0.053329
0.065430
-0.029689
0.174703
0.146510
0.048104
-0.067036
-0.000077
-0.012200
0.185526
0.024393
-0.043737
-0.050114
-0.206808
0.078479
0.122031
0.034713
-0.176595
0.076113
-0.119976
-0.056060
0.066950
0.145505
0.096803
-0.056474
0.147697
-0.240289
0.178519
-0.015539
0.022141
0.101722
-0.147966
-0.249460
0.046703
-0.001530
-0.032900
0.096094
0.036290
-0.081822
0.098971
-0.173823
0.124429
0.066256
0.080186
0.173716
0.186288
-0.222535
0.143669
0.074482
-0.130284
-0.054588
-0.050306
-0.003817
-0.135675
0.085092
0.053262
0.089278
-0.011336
0.018141
0.166222
0.049075
-0.144217
0.183876
-0.123352
0.069192
-0.099698
-0.131313
-0.010438
0.031277
0.065495
-0.073561
0.224565
0.201930
-0.023666
0.013381
0.064826
0.018946
-0.053253
-0.086948
-0.045575
-0.246195
0.225605
0.160953
0.012676
-0.040883
-0.135032
0.013759
0.077638
0.031342
0.152340
-0.023679
-0.017888
-0.053056
0.016408
-0.054565
-0.016098
-0.073206
0.194368
-0.158302
0.001583
-0.043745
0.081631
-0.091486
-0.052861
0.030272
0.087216
0.029263
0.000588
-0.262649
0.084098
0.146868
0.014905
-0.017107
-0.002633
0.119725
0.254278
0.143104
0.175692
0.205813
0.026725
0.020833
0.062397
0.082482
-0.099577
-0.012268
-0.023213
-0.098354
0.087044
-0.129414
0.196495
-0.012095
-0.120687
0.003501
-0.281322
-0.149684
-0.211857
0.018638
-0.074513
-0.045832
-0.007109
-0.129193
0.135986
0.112520
0.108835
-0.066888
-0.060537
0.045240
-0.076401
-0.071179
-0.013436
-0.126980
-0.064667
0.044926
0.052525
0.096257
-0.026719
-0.078217
0.231612
0.007304
0.133981
0.258311
0.251492
-0.004878
-0.056989
0.003220
-0.127649
-0.114941
-0.039617
-0.148078
0.230609
0.023611
-0.102604
-0.127110
-0.091912
-0.083767
0.265766
0.123638
-0.059369
-0.030830
-0.037424
0.107519
-0.035388
0.031391
0.011895
-0.115490
-0.059539
0.006121
0.029442
-0.211418
-0.057244
0.012245
0.003138
0.038444
0.071404
0.002629
0.030589
0.126656
-0.011562
-0.046131
0.056103
-0.126814
-0.015134
-0.006796
-0.101001
0.005058
-0.141383
0.076181
-0.061343
0.043941
-0.034003
-0.134189
-0.088311
0.044383
-0.055546
-0.152995
-0.022247
0.151027
-0.056919
-0.011971
-0.008344
-0.098973
0.082596
-0.034498
-0.050504
0.141608
-0.073015
0.049934
0.125264
0.069948
0.075996
-0.061138
0.129354
0.013926
0.148759
-0.103985
-0.013730
-0.021695
0.015432
0.015631
-0.047305
-0.016477
0.089510
0.070378
-0.071901
0.138173
-0.029029
0.052773
0.001078
0.087414
0.141642
0.006293
0.153396
0.052531
0.128423
0.039359
-0.075515
-0.003836
-0.302295
0.178873
-0.027584
-0.095441
0.056955
-0.085110
0.011873
0.177451
-0.038586
-0.111906
-0.197067
0.013565
-0.003949
0.058897
0.085123
0.035459
0.076712
0.125301
-0.022556
0.001463
-0.077842
0.011205
-0.196586
-0.070594
-0.040140
-0.100911
-0.049492
-0.025768
0.137135
0.081175
0.051402
0.097513
-0.095665
0.178924
-0.104358
-0.037387
-0.050084
0.003269
0.060847
-0.071510
-0.135915
0.129044
-0.082466
-0.103482
0.206227
0.179878
0.020746
-0.017254
0.189349
0.210502
0.128649
0.074004
-0.158174
0.064413
0.106470
0.037324
-0.117915
-0.123503
-0.020851
-0.141545
-0.177435
-0.098662
0.004729
0.096464
-0.035709
-0.013492
-0.051886
0.007338
0.067576
-0.061037
0.105302
0.002436
-0.030513
-0.145542
0.062762
-0.069295
-0.067950
0.113156
0.179473
0.012317
0.098820
-0.034741
0.030786
-0.129866
0.075693
0.184637
-0.037982
0.018686
0.080126
-0.071719
0.032387
-0.085964
-0.033027
-0.047088
0.104778
-0.085204
-0.005038
-0.160420
0.033016
-0.150507
-0.136023
0.136235
-0.106010
-0.097055
-0.004331
0.078290
-0.200411
-0.255073
0.014736
0.154116
-0.189233
-0.038657
0.008935
-0.052694
0.029811
0.195745
-0.029463
-0.097682
-0.023224
0.118490
-0.211094
-0.106285
-0.221870
-0.084694
-0.091437
-0.024183
-0.005199
-0.153137
-0.249313
-0.077094
0.009534
0.073280
-0.151113
0.040594
-0.169086
0.198664
-0.111158
-0.076392
0.094054
0.036004
-0.076434
-0.107597
0.016849
-0.135682
-0.044591
0.113955
-0.186689
-0.069143
0.107279
0.028147
0.169208
0.323455
-0.080985
0.115371
-0.097591
0.107291
0.021430
-0.074502
-0.250285
0.045443
0.069700
0.065301
0.161916
-0.219946
-0.115863
0.030448
-0.117358
-0.078517
0.049061
0.177567
0.044176
-0.175281
-0.108643
0.178482
-0.021207
0.473250
0.199368
0.003221
0.006771
-0.049725
-0.048759
-0.134787
-0.040054
-0.072908
0.037240
-0.198229
0.135362
0.039904
-0.095477
0.147075
-0.217459
0.121183
-0.030234
0.133806
0.059184
-0.034899
0.002487
-0.037230
0.138594
0.032935
0.122709
0.045222
-0.034329
-0.044821
-0.153466
0.014647
0.205858
0.008412
-0.029305
0.011200
0.227996
0.218329
0.007754
0.130960
-0.069112
-0.086939
-0.076845
-0.001985
0.151722
-0.031011
-0.006531
-0.240474
-0.034555
0.023390
0.067265
-0.045595
0.104979
-0.103868
-0.136683
-0.215617
-0.090401
-0.051822
0.037217
0.061723
0.042888
-0.084128
-0.113250
-0.042700
0.044963
0.250528
0.083529
0.090875
-0.148617
0.017695
-0.126059
0.090075
-0.027643
-0.151520
-0.034061
-0.038780
0.216050
-0.098675
0.170452
0.016185
-0.078617
0.146674
0.030078
0.041830
-0.087759
0.040037
-0.024454
-0.069909
-0.201895
-0.100261
0.021106
0.095432
-0.132687
-0.181715
-0.147627
0.048659
-0.031767
-0.290541
-0.123777
0.140755
0.046362
0.023218
-0.199939
0.015195
-0.065406
-0.090611
0.135560
-0.122205
0.033887
-0.012152
0.071386
-0.078853
0.075043
0.073131
-0.006042
-0.070319
0.161480
0.109641
0.155998
-0.095157
0.053909
-0.023039
-0.228803
-0.173361
0.029137
-0.059757
0.018780
-0.147232
0.090575
-0.055651
0.011247
0.022177
-0.099719
0.027223
-0.061113
-0.022785
-0.037793
0.088080
0.160283
-0.101304
-0.006858
-0.098770
0.009191
-0.090448
0.066546
0.051540
-0.062036
0.154259
-0.018426
0.049885
0.170322
0.182335
0.049147
0.029600
-0.011420
-0.133214
-0.036706
0.049183
-0.123674
-0.061591
-0.147697
-0.243270
0.043109
0.061539
0.031708
-0.125556
0.078574
0.085092
0.112871
0.034519
0.157036
0.107824
0.054737
-0.156811
0.104651
0.037048
-0.124485
0.082258
0.070791
-0.135691
0.394500
0.184212
-0.099439
-0.080035
0.097244
-0.031553
0.208533
0.119888
-0.211467
-0.090124
0.085990
0.084367
0.071244
-0.113685
-0.157949
-0.041275
-0.150384
0.186567
-0.105529
-0.179330
-0.015690
0.152903
-0.118288
-0.080114
0.342335
0.027709
0.151522
-0.131754
0.271514
0.154061
0.027281
0.145753
0.005719
0.146697
-0.113832
-0.143647
0.052011
-0.047544
0.012568
0.021614
0.112104
0.069604
-0.085563
0.128219
0.100721
0.099635
0.020169
-0.099477
0.019818
0.130694
-0.279812
-0.041752
0.078241
0.126031
-0.235412
-0.114356
0.029620
0.082376
0.178451
0.085193
0.223088
-0.058717
0.080084
0.062603
-0.067987
0.021040
0.096557
-0.011191
0.143646
-0.003997
0.037691
0.017268
0.182481
0.056595
0.201888
-0.142912
-0.033491
0.031456
-0.063136
0.111160
-0.039000
0.032227
-0.001167
-0.043189
-0.177809
-0.198697
-0.227642
-0.155690
0.014417
-0.243278
-0.003905
-0.039030
-0.210754
-0.233116
-0.158257
-0.025310
-0.062779
0.118820
0.014966
0.110271
0.208229
0.238577
-0.010646
-0.041732
-0.154439
-0.089863
-0.253146
-0.032053
-0.071788
-0.075515
-0.087915
-0.028067
-0.099612
-0.012714
-0.040106
-0.004462
-0.036217
-0.035341
0.202103
-0.073082
0.057482
0.036452
0.223839
0.021628
0.028343
-0.188684
-0.089316
0.097184
0.015787
0.020495
-0.298517
-0.013203
0.080757
-0.038287
-0.123017
-0.031249
0.143069
-0.007779
0.071748
0.191864
-0.043457
0.071624
0.152373
-0.130056
-0.058593
0.034715
-0.063931
-0.106752
-0.025973
-0.007011
0.126981
-0.227856
0.048122
0.039513
0.003969
0.036917
-0.017772
0.028479
-0.070603
-0.191510
0.151727
-0.027069
-0.116724
0.111881
0.058077
-0.051545
0.003290
-0.004070
0.160846
-0.008433
0.145693
-0.101724
0.159303
0.071673
-0.010913
-0.188826
-0.194824
0.358215
0.049003
-0.139381
-0.135402
0.069228
0.034140
0.123530
0.041124
0.012859
-0.020491
0.080686
-0.035129
0.049121
0.070497
-0.153933
-0.072319
0.069550
0.003926
0.041934
0.117186
-0.058189
0.025125
0.135454
-0.018533
-0.056231
0.080732
-0.146286
-0.010301
0.093806
-0.096627
-0.209132
-0.040279
0.010908
-0.218739
-0.047940
-0.022202
-0.048404
0.058627
-0.071875
-0.107140
0.212723
0.011315
-0.147995
-0.236648
-0.194019
-0.060561
-0.045019
-0.105398
0.052345
0.054553
-0.057360
0.065142
0.031015
-0.103597
-0.189976
-0.056686
0.022429
0.006695
-0.006717
0.113639
0.045823
-0.024075
0.078631
0.113528
-0.047007
-0.126694
0.134885
0.097775
0.129289
-0.059137
-0.049616
-0.070500
0.005689
0.085624
0.071671
0.043608
0.173530
0.103888
0.126116
-0.188694
-0.185086
0.104727
0.133126
-0.049214
0.213267
0.158061
0.122279
-0.095973
0.335154
0.090908
-0.026973
-0.126177
0.136854
-0.038317
0.051909
-0.033430
0.082961
-0.222420
-0.118186
0.128733
-0.095115
0.006446
-0.352627
-0.060944
0.087148
0.045953
0.013719
0.001980
0.194549
0.012861
0.122301
0.083971
0.242183
0.082299
0.125011
0.044090
-0.082178
0.066268
0.021991
0.033200
-0.072906
-0.065524
0.045202
0.032699
0.244189
-0.037539
0.129239
0.047397
0.187485
-0.127566
0.097555
0.037607
-0.149471
0.355672
0.026969
0.116633
-0.008993
0.008331
0.053597
0.056835
0.320755
-0.010921
0.073363
-0.033965
-0.035007
-0.003856
-0.048396
-0.071661
0.069679
-0.086611
-0.000120
-0.130379
-0.074218
-0.079493
-0.050304
0.152877
0.044742
0.143906
-0.066422
-0.193128
0.091460
-0.139705
0.047102
0.066267
0.031676
0.027846
-0.066051
0.037138
-0.014682
-0.060352
-0.003087
0.013482
0.011862
0.129241
-0.000342
-0.135592
0.045165
-0.002751
-0.051070
-0.062965
0.009242
0.104105
0.041429
-0.159024
0.229156
-0.008777
0.155860
-0.012114
-0.293707
0.084576
0.111274
0.004393
0.074217
0.002937
-0.105837
0.076188
-0.171842
-0.167937
0.103481
-0.029463
-0.114341
-0.317659
-0.103369
-0.066360
-0.005615
0.106428
-0.196954
-0.034246
0.005517
0.132382
-0.160516
-0.138400
0.092779
-0.111927
0.037518
-0.222624
0.103065
-0.154747
-0.302678
-0.011460
0.122699
0.035606
-0.025899
0.049425
-0.060684
-0.004852
-0.040331
-0.021569
-0.011577
0.064279
0.045054
-0.151108
0.141618
0.044200
-0.059466
-0.066589
0.006963
-0.197643
0.105315
-0.110160
-0.253657
-0.133472
0.033949
0.139665
-0.090174
0.185107
-0.021129
0.123888
-0.120891
-0.030957
0.079700
-0.022539
0.018167
0.115369
0.022766
0.006772
0.118422
0.016915
0.098569
0.006841
0.055419
0.045922
-0.041888
0.157122
-0.005743
0.029806
0.071751
0.059601
-0.010515
-0.230725
0.066874
0.212551
0.042890
-0.124841
-0.129527
0.070753
-0.152293
-0.230981
-0.213816
0.016189
-0.051965
0.075495
-0.171948
0.108524
-0.065240
0.024485
0.126757
0.205712
0.160199
0.101193
-0.109071
-0.120916
-0.065809
-0.027686
0.005274
-0.053739
-0.043834
-0.017526
-0.018500
-0.057837
-0.050196
-0.012471
-0.060992
0.018933
0.105939
0.063784
-0.031211
-0.083262
0.014915
-0.049163
0.099146
0.018167
-0.172575
-0.151798
-0.181404
0.029766
-0.069413
0.168359
-0.031550
-0.149521
-0.179797
0.161246
0.098300
-0.010597
0.048850
0.052774
0.015866
0.052482
0.107265
0.288164
-0.115514
0.184899
0.116690
0.092901
0.009346
0.445793
0.020608
0.201696
-0.155525
0.240646
0.027096
0.040787
0.085212
0.074053
0.142846
0.006156
0.072790
0.100992
-0.317056
-0.021594
-0.000135
-0.012617
-0.039928
-0.027545
-0.263564
0.049417
-0.301412
-0.520299
